digraph Tree {
node [shape=box, style="filled, rounded", color="black", fontname=helvetica] ;
edge [fontname=helvetica] ;
0 [label="carat <= 0.475\ngini = 0.744\nsamples = 40000\nvalue = [10451, 10474, 4130, 13071, 1874]\nclass = s", fillcolor="#eeeefd"] ;
1 [label="carat <= 0.465\ngini = 0.006\nsamples = 13083\nvalue = [0, 39, 0, 13044, 0]\nclass = s", fillcolor="#3d3ae5"] ;
0 -> 1 [labeldistance=2.5, labelangle=45, headlabel="True"] ;
2 [label="price <= 1833.5\ngini = 0.002\nsamples = 13015\nvalue = [0, 10, 0, 13005, 0]\nclass = s", fillcolor="#3c39e5"] ;
1 -> 2 ;
3 [label="carat <= 0.455\ngini = 0.001\nsamples = 12996\nvalue = [0, 7, 0, 12989, 0]\nclass = s", fillcolor="#3c39e5"] ;
2 -> 3 ;
4 [label="color <= 1.5\ngini = 0.0\nsamples = 12870\nvalue = [0, 3, 0, 12867, 0]\nclass = s", fillcolor="#3c39e5"] ;
3 -> 4 ;
5 [label="gini = 0.007\nsamples = 301\nvalue = [0, 1, 0, 300, 0]\nclass = s", fillcolor="#3d3ae5"] ;
4 -> 5 ;
6 [label="gini = 0.0\nsamples = 12569\nvalue = [0, 2, 0, 12567, 0]\nclass = s", fillcolor="#3c39e5"] ;
4 -> 6 ;
7 [label="cut <= 3.5\ngini = 0.061\nsamples = 126\nvalue = [0, 4, 0, 122, 0]\nclass = s", fillcolor="#423fe6"] ;
3 -> 7 ;
8 [label="gini = 0.156\nsamples = 47\nvalue = [0, 4, 0, 43, 0]\nclass = s", fillcolor="#4e4be7"] ;
7 -> 8 ;
9 [label="gini = 0.0\nsamples = 79\nvalue = [0, 0, 0, 79, 0]\nclass = s", fillcolor="#3c39e5"] ;
7 -> 9 ;
10 [label="clarity <= 7.5\ngini = 0.266\nsamples = 19\nvalue = [0, 3, 0, 16, 0]\nclass = s", fillcolor="#615eea"] ;
2 -> 10 ;
11 [label="price <= 1836.0\ngini = 0.124\nsamples = 15\nvalue = [0, 1, 0, 14, 0]\nclass = s", fillcolor="#4a47e7"] ;
10 -> 11 ;
12 [label="gini = 0.444\nsamples = 3\nvalue = [0, 1, 0, 2, 0]\nclass = s", fillcolor="#9e9cf2"] ;
11 -> 12 ;
13 [label="gini = 0.0\nsamples = 12\nvalue = [0, 0, 0, 12, 0]\nclass = s", fillcolor="#3c39e5"] ;
11 -> 13 ;
14 [label="carat <= 0.45\ngini = 0.5\nsamples = 4\nvalue = [0, 2, 0, 2, 0]\nclass = l", fillcolor="#ffffff"] ;
10 -> 14 ;
15 [label="gini = 0.0\nsamples = 2\nvalue = [0, 0, 0, 2, 0]\nclass = s", fillcolor="#3c39e5"] ;
14 -> 15 ;
16 [label="gini = 0.0\nsamples = 2\nvalue = [0, 2, 0, 0, 0]\nclass = l", fillcolor="#7be539"] ;
14 -> 16 ;
17 [label="price <= 1617.0\ngini = 0.489\nsamples = 68\nvalue = [0, 29, 0, 39, 0]\nclass = s", fillcolor="#cdccf8"] ;
1 -> 17 ;
18 [label="price <= 985.0\ngini = 0.413\nsamples = 55\nvalue = [0, 16, 0, 39, 0]\nclass = s", fillcolor="#8c8af0"] ;
17 -> 18 ;
19 [label="price <= 800.5\ngini = 0.111\nsamples = 17\nvalue = [0, 1, 0, 16, 0]\nclass = s", fillcolor="#4845e7"] ;
18 -> 19 ;
20 [label="gini = 0.375\nsamples = 4\nvalue = [0, 1, 0, 3, 0]\nclass = s", fillcolor="#7d7bee"] ;
19 -> 20 ;
21 [label="gini = 0.0\nsamples = 13\nvalue = [0, 0, 0, 13, 0]\nclass = s", fillcolor="#3c39e5"] ;
19 -> 21 ;
22 [label="cut <= 1.5\ngini = 0.478\nsamples = 38\nvalue = [0, 15, 0, 23, 0]\nclass = s", fillcolor="#bbbaf6"] ;
18 -> 22 ;
23 [label="gini = 0.0\nsamples = 2\nvalue = [0, 2, 0, 0, 0]\nclass = l", fillcolor="#7be539"] ;
22 -> 23 ;
24 [label="gini = 0.461\nsamples = 36\nvalue = [0, 13, 0, 23, 0]\nclass = s", fillcolor="#aaa9f4"] ;
22 -> 24 ;
25 [label="gini = 0.0\nsamples = 13\nvalue = [0, 13, 0, 0, 0]\nclass = l", fillcolor="#7be539"] ;
17 -> 25 ;
26 [label="carat <= 0.835\ngini = 0.671\nsamples = 26917\nvalue = [10451, 10435, 4130, 27, 1874]\nclass = c", fillcolor="#ffffff"] ;
0 -> 26 [labeldistance=2.5, labelangle=-45, headlabel="False"] ;
27 [label="carat <= 0.805\ngini = 0.021\nsamples = 10509\nvalue = [91, 10396, 0, 21, 1]\nclass = l", fillcolor="#7ce53b"] ;
26 -> 27 ;
28 [label="price <= 4494.0\ngini = 0.006\nsamples = 10173\nvalue = [10, 10141, 0, 21, 1]\nclass = l", fillcolor="#7be53a"] ;
27 -> 28 ;
29 [label="carat <= 0.485\ngini = 0.005\nsamples = 10125\nvalue = [1, 10102, 0, 21, 1]\nclass = l", fillcolor="#7be539"] ;
28 -> 29 ;
30 [label="gini = 0.287\nsamples = 46\nvalue = [0, 38, 0, 8, 0]\nclass = l", fillcolor="#97ea63"] ;
29 -> 30 ;
31 [label="gini = 0.003\nsamples = 10079\nvalue = [1, 10064, 0, 13, 1]\nclass = l", fillcolor="#7be539"] ;
29 -> 31 ;
32 [label="carat <= 0.78\ngini = 0.305\nsamples = 48\nvalue = [9, 39, 0, 0, 0]\nclass = l", fillcolor="#99eb67"] ;
28 -> 32 ;
33 [label="gini = 0.0\nsamples = 38\nvalue = [0, 38, 0, 0, 0]\nclass = l", fillcolor="#7be539"] ;
32 -> 33 ;
34 [label="gini = 0.18\nsamples = 10\nvalue = [9, 1, 0, 0, 0]\nclass = c", fillcolor="#e88f4f"] ;
32 -> 34 ;
35 [label="price <= 3406.0\ngini = 0.366\nsamples = 336\nvalue = [81, 255, 0, 0, 0]\nclass = l", fillcolor="#a5ed78"] ;
27 -> 35 ;
36 [label="price <= 3165.0\ngini = 0.107\nsamples = 248\nvalue = [14, 234, 0, 0, 0]\nclass = l", fillcolor="#83e745"] ;
35 -> 36 ;
37 [label="gini = 0.03\nsamples = 196\nvalue = [3, 193, 0, 0, 0]\nclass = l", fillcolor="#7de53c"] ;
36 -> 37 ;
38 [label="gini = 0.334\nsamples = 52\nvalue = [11, 41, 0, 0, 0]\nclass = l", fillcolor="#9eec6e"] ;
36 -> 38 ;
39 [label="price <= 3765.0\ngini = 0.363\nsamples = 88\nvalue = [67, 21, 0, 0, 0]\nclass = c", fillcolor="#eda877"] ;
35 -> 39 ;
40 [label="gini = 0.5\nsamples = 35\nvalue = [17, 18, 0, 0, 0]\nclass = l", fillcolor="#f8fef4"] ;
39 -> 40 ;
41 [label="gini = 0.107\nsamples = 53\nvalue = [50, 3, 0, 0, 0]\nclass = c", fillcolor="#e78945"] ;
39 -> 41 ;
42 [label="carat <= 1.295\ngini = 0.525\nsamples = 16408\nvalue = [10360, 39, 4130, 6, 1873]\nclass = c", fillcolor="#f2bf9b"] ;
26 -> 42 ;
43 [label="price <= 8430.5\ngini = 0.146\nsamples = 11056\nvalue = [10181, 38, 832, 5, 0]\nclass = c", fillcolor="#e78c4a"] ;
42 -> 43 ;
44 [label="price <= 7901.5\ngini = 0.033\nsamples = 9967\nvalue = [9801, 38, 123, 5, 0]\nclass = c", fillcolor="#e5833c"] ;
43 -> 44 ;
45 [label="gini = 0.02\nsamples = 9706\nvalue = [9606, 38, 57, 5, 0]\nclass = c", fillcolor="#e5823b"] ;
44 -> 45 ;
46 [label="gini = 0.378\nsamples = 261\nvalue = [195, 0, 66, 0, 0]\nclass = c", fillcolor="#eeac7c"] ;
44 -> 46 ;
47 [label="carat <= 1.125\ngini = 0.454\nsamples = 1089\nvalue = [380, 0, 709, 0, 0]\nclass = u", fillcolor="#a3f3e4"] ;
43 -> 47 ;
48 [label="gini = 0.375\nsamples = 468\nvalue = [351, 0, 117, 0, 0]\nclass = c", fillcolor="#eeab7b"] ;
47 -> 48 ;
49 [label="gini = 0.089\nsamples = 621\nvalue = [29, 0, 592, 0, 0]\nclass = u", fillcolor="#43e6c8"] ;
47 -> 49 ;
50 [label="carat <= 1.785\ngini = 0.497\nsamples = 5352\nvalue = [179, 1, 3298, 1, 1873]\nclass = u", fillcolor="#aef4e7"] ;
42 -> 50 ;
51 [label="price <= 15802.5\ngini = 0.211\nsamples = 3662\nvalue = [179, 1, 3238, 0, 244]\nclass = u", fillcolor="#52e8cc"] ;
50 -> 51 ;
52 [label="gini = 0.152\nsamples = 3454\nvalue = [179, 1, 3174, 0, 100]\nclass = u", fillcolor="#4ae7ca"] ;
51 -> 52 ;
53 [label="gini = 0.426\nsamples = 208\nvalue = [0, 0, 64, 0, 144]\nclass = t", fillcolor="#f191dc"] ;
51 -> 53 ;
54 [label="price <= 7047.5\ngini = 0.07\nsamples = 1690\nvalue = [0, 0, 60, 1, 1629]\nclass = t", fillcolor="#e640c2"] ;
50 -> 54 ;
55 [label="gini = 0.284\nsamples = 35\nvalue = [0, 0, 29, 0, 6]\nclass = u", fillcolor="#62ead1"] ;
54 -> 55 ;
56 [label="gini = 0.038\nsamples = 1655\nvalue = [0, 0, 31, 1, 1623]\nclass = t", fillcolor="#e63dc1"] ;
54 -> 56 ;
}